FANN_FLO_2.1
num_layers=3
learning_rate=0.700000
connection_rate=1.000000
network_type=0
learning_momentum=0.000000
training_algorithm=2
train_error_function=1
train_stop_function=0
cascade_output_change_fraction=0.010000
quickprop_decay=-0.000100
quickprop_mu=1.750000
rprop_increase_factor=1.200000
rprop_decrease_factor=0.500000
rprop_delta_min=0.000000
rprop_delta_max=50.000000
rprop_delta_zero=0.100000
cascade_output_stagnation_epochs=12
cascade_candidate_change_fraction=0.010000
cascade_candidate_stagnation_epochs=12
cascade_max_out_epochs=150
cascade_max_cand_epochs=150
cascade_num_candidate_groups=2
bit_fail_limit=3.49999999999999977796e-01
cascade_candidate_limit=1.00000000000000000000e+03
cascade_weight_multiplier=4.00000000000000022204e-01
cascade_activation_functions_count=10
cascade_activation_functions=3 5 7 8 10 11 14 15 16 17 
cascade_activation_steepnesses_count=4
cascade_activation_steepnesses=2.50000000000000000000e-01 5.00000000000000000000e-01 7.50000000000000000000e-01 1.00000000000000000000e+00 
layer_sizes=5 5 4 
scale_included=0
neurons (num_inputs, activation_function, activation_steepness)=(0, 0, 0.00000000000000000000e+00) (0, 0, 0.00000000000000000000e+00) (0, 0, 0.00000000000000000000e+00) (0, 0, 0.00000000000000000000e+00) (0, 0, 0.00000000000000000000e+00) (5, 4, 5.00000000000000000000e-01) (5, 4, 5.00000000000000000000e-01) (5, 4, 5.00000000000000000000e-01) (5, 4, 5.00000000000000000000e-01) (0, 0, 0.00000000000000000000e+00) (5, 6, 5.00000000000000000000e-01) (5, 6, 5.00000000000000000000e-01) (5, 6, 5.00000000000000000000e-01) (0, 6, 0.00000000000000000000e+00) 
connections (connected_to_neuron, weight)=(0, 8.36343988776206970215e-02) (1, -2.37994864583015441895e-02) (2, 8.51595476269721984863e-02) (3, -7.04616308212280273438e-03) (4, -5.15067689120769500732e-02) (0, 5.22931590676307678223e-02) (1, 3.22104617953300476074e-02) (2, 4.07143756747245788574e-02) (3, 1.41187310218811035156e-02) (4, -2.35901027917861938477e-02) (0, -8.70460420846939086914e-02) (1, 4.87651675939559936523e-03) (2, 6.81916251778602600098e-02) (3, -5.55312968790531158447e-02) (4, 4.61658015847206115723e-02) (0, -6.96270316839218139648e-02) (1, 5.49187585711479187012e-02) (2, 7.16001465916633605957e-02) (3, -1.81259959936141967773e-02) (4, 1.81653499603271484375e-02) (5, 3.65356355905532836914e-03) (6, 9.46716740727424621582e-02) (7, 5.43141439557075500488e-02) (8, 6.35829642415046691895e-02) (9, 5.20274117588996887207e-02) (5, 4.75784763693809509277e-02) (6, -3.16316708922386169434e-02) (7, -9.56500619649887084961e-02) (8, 1.02684646844863891602e-03) (9, 3.12481001019477844238e-02) (5, 8.23876634240150451660e-02) (6, -1.53387635946273803711e-02) (7, -9.25513803958892822266e-02) (8, 6.75472095608711242676e-02) (9, 7.76150897145271301270e-02) 
